<?xml version="1.0" ?>
<Model name="COPY">
   <NeuralNetwork name="TW_I&amp;F_Letch">
      <neuron name="PVD" gleak="1.3440847332949921" vleak="-11.178387497293347" cm="0.001" potencial="-11.612788765222657" testGleak="1.3440847332949921" testVleak="-11.178387497293347" testCm="0.001" testPotencial="-70.0"/>
      <neuron name="PLM" gleak="0.17793612813689844" vleak="-44.5784418900887" cm="0.001" potencial="-41.99167890314093" testGleak="0.17793612813689844" testVleak="-44.5784418900887" testCm="0.001" testPotencial="4.036180127391475"/>
      <neuron name="AVA" gleak="2.10587214785132" vleak="-61.7363371579624" cm="0.27781482800776214" potencial="-70.22035089838728" testGleak="2.10587214785132" testVleak="-61.7363371579624" testCm="0.27781482800776214" testPotencial="-70"/>
      <neuron name="AVD" gleak="0.05" vleak="-66.13381842539725" cm="0.1361951529339135" potencial="-79.91303721227516" testGleak="0.05" testVleak="-66.13381842539725" testCm="0.1361951529339135" testPotencial="-70"/>
      <neuron name="PVC" gleak="1.2759258307602275" vleak="-90" cm="0.2150890654715627" potencial="-72.41108262721889" testGleak="1.2759258307602275" testVleak="-90" testCm="0.2150890654715627" testPotencial="-70"/>
      <neuron name="AVB" gleak="1.3657210626611622" vleak="-55.430399937624486" cm="0.561573163857699" potencial="-50.92986811867992" testGleak="1.3657210626611622" testVleak="-55.430399937624486" testCm="0.561573163857699" testPotencial="-70"/>
      <neuron name="AVM" gleak="0.9459064109946995" vleak="-24.16173822562646" cm="0.14858210808231945" potencial="-52.16958691830251" testGleak="0.9459064109946995" testVleak="-24.16173822562646" testCm="0.14858210808231945" testPotencial="-70.0"/>
      <neuron name="ALM" gleak="2.2182294599881964" vleak="-36.303243982963636" cm="0.13409257408634373" potencial="-40.381393713747876" testGleak="2.2182294599881964" testVleak="-36.303243982963636" testCm="0.13409257408634373" testPotencial="-47.127682191470385"/>
      <neuron name="DVA" gleak="0.7828586625241248" vleak="-77.8547827902088" cm="0.616478068034764" potencial="-84.6629460571739" testGleak="0.7828586625241248" testVleak="-77.8547827902088" testCm="0.616478068034764" testPotencial="-70"/>
      <neuron name="FWD" gleak="0.2267412519975014" vleak="-55.09025408056043" cm="0.22557368825399776" potencial="-52.190082506091294" testGleak="0.2267412519975014" testVleak="-55.09025408056043" testCm="0.22557368825399776" testPotencial="-70"/>
      <neuron name="REV" gleak="0.5233804128726615" vleak="-90" cm="0.2503564089054773" potencial="-44.04791565639642" testGleak="0.5233804128726615" testVleak="-90" testCm="0.2503564089054773" testPotencial="-70"/>
      <connection connType="ConnectionType.ChemIn" connSource="PVD" connTarget="AVA" connWeight="0.6277581330558759" connSigma="0.5" testWeight="0.6277581330558759" testSigma="0.5"/>
      <connection connType="ConnectionType.ChemIn" connSource="PLM" connTarget="AVA" connWeight="1.03481380914484" connSigma="0.5" testWeight="1.03481380914484" testSigma="0.5"/>
      <connection connType="ConnectionType.ChemEx" connSource="PVC" connTarget="AVA" connWeight="3.0" connSigma="0.278145297828077" testWeight="3.0" testSigma="0.278145297828077"/>
      <connection connType="ConnectionType.ChemIn" connSource="AVB" connTarget="AVA" connWeight="1.7791721848893969" connSigma="0.5" testWeight="1.7791721848893969" testSigma="0.5"/>
      <connection connType="ConnectionType.ChemEx" connSource="AVD" connTarget="AVA" connWeight="1.1246033848244874" connSigma="0.2785681405373295" testWeight="1.1246033848244874" testSigma="0.2785681405373295"/>
      <connection connType="ConnectionType.ChemIn" connSource="PLM" connTarget="AVD" connWeight="0.49917071911998995" connSigma="0.05" testWeight="0.49917071911998995" testSigma="0.05"/>
      <connection connType="ConnectionType.ChemEx" connSource="PVC" connTarget="AVD" connWeight="0.7670626096027078" connSigma="0.281118745915915" testWeight="0.7670626096027078" testSigma="0.281118745915915"/>
      <connection connType="ConnectionType.ChemIn" connSource="AVA" connTarget="AVD" connWeight="1.1919535466266808" connSigma="0.05" testWeight="1.1919535466266808" testSigma="0.05"/>
      <connection connType="ConnectionType.ChemIn" connSource="AVB" connTarget="AVD" connWeight="0" connSigma="0.37729572751905915" testWeight="0" testSigma="0.37729572751905915"/>
      <connection connType="ConnectionType.AGJ" connSource="AVM" connTarget="AVD" connWeight="0.9432411037654523" connSigma="0.4815706249247059" testWeight="0.9432411037654523" testSigma="0.4815706249247059"/>
      <connection connType="ConnectionType.ChemIn" connSource="ALM" connTarget="AVD" connWeight="1.2597716136272672" connSigma="0.05" testWeight="1.2597716136272672" testSigma="0.05"/>
      <connection connType="ConnectionType.ChemIn" connSource="PVD" connTarget="PVC" connWeight="1.8554004521922765" connSigma="0.5" testWeight="1.8554004521922765" testSigma="0.5"/>
      <connection connType="ConnectionType.AGJ" connSource="PLM" connTarget="PVC" connWeight="2.117081538493319" connSigma="0.5" testWeight="2.117081538493319" testSigma="0.5"/>
      <connection connType="ConnectionType.ChemIn" connSource="AVA" connTarget="PVC" connWeight="1.8350431351743768" connSigma="0.5" testWeight="1.8350431351743768" testSigma="0.5"/>
      <connection connType="ConnectionType.ChemEx" connSource="AVD" connTarget="PVC" connWeight="0.5678570786771856" connSigma="0.05" testWeight="0.5678570786771856" testSigma="0.05"/>
      <connection connType="ConnectionType.ChemIn" connSource="AVM" connTarget="PVC" connWeight="2.5877639689693024" connSigma="0.05875189168228859" testWeight="2.5877639689693024" testSigma="0.05875189168228859"/>
      <connection connType="ConnectionType.ChemIn" connSource="ALM" connTarget="PVC" connWeight="2.487890136378794" connSigma="0.5" testWeight="2.487890136378794" testSigma="0.5"/>
      <connection connType="ConnectionType.ChemIn" connSource="DVA" connTarget="PVC" connWeight="3.0" connSigma="0.05" testWeight="3.0" testSigma="0.05"/>
      <connection connType="ConnectionType.ChemEx" connSource="PVC" connTarget="AVB" connWeight="3.0" connSigma="0.05" testWeight="3.0" testSigma="0.05"/>
      <connection connType="ConnectionType.ChemIn" connSource="AVA" connTarget="AVB" connWeight="2.4076442888491654" connSigma="0.05" testWeight="2.4076442888491654" testSigma="0.05"/>
      <connection connType="ConnectionType.ChemEx" connSource="AVD" connTarget="AVB" connWeight="2.2498006989990422" connSigma="0.4578020584078035" testWeight="2.2498006989990422" testSigma="0.4578020584078035"/>
      <connection connType="ConnectionType.ChemIn" connSource="PVD" connTarget="DVA" connWeight="0.9817014240070087" connSigma="0.11002030817189765" testWeight="0.9817014240070087" testSigma="0.11002030817189765"/>
      <connection connType="ConnectionType.ChemIn" connSource="PLM" connTarget="DVA" connWeight="0.17872223314793648" connSigma="0.3056837776570618" testWeight="0.17872223314793648" testSigma="0.3056837776570618"/>
      <connection connType="ConnectionType.ChemEx" connSource="PVC" connTarget="DVA" connWeight="2.766101522325269" connSigma="0.4377699251934152" testWeight="2.766101522325269" testSigma="0.4377699251934152"/>
      <connection connType="ConnectionType.ChemEx" connSource="AVB" connTarget="FWD" connWeight="1.219922478941318" connSigma="0.49225932077005974" testWeight="1.219922478941318" testSigma="0.49225932077005974"/>
      <connection connType="ConnectionType.ChemEx" connSource="AVA" connTarget="REV" connWeight="3.0" connSigma="0.05" testWeight="3.0" testSigma="0.05"/>
   </NeuralNetwork>
   <Interfaces>
      <interface name="IN1" maxPotencial="-20.0" minPotencial="-70.0" maxValue="0.3" minValue="-0.3" value="0.44421708076434885" positiveNeuron="PLM" negativeNeuron="AVM" type="IN"/>
      <interface name="IN2" maxPotencial="-20.0" minPotencial="-70.0" maxValue="0.02" minValue="-0.02" value="0.009148927123411848" positiveNeuron="ALM" negativeNeuron="PVD" type="IN"/>
      <interface name="OUT1" maxPotencial="-20.0" minPotencial="-70.0" maxValue="1.0" minValue="-1.0" value="0" positiveNeuron="FWD" negativeNeuron="REV" type="OUT"/>
   </Interfaces>
</Model>
